|--- rtc_score <= 416.50
|   |--- smartbaseline_neglogpvalue_rank <= 3.65
|   |   |--- finemap_clppmod <= 416.50
|   |   |   |--- caviarbf_clpp_rank <= 0.00
|   |   |   |   |--- class: False
|   |   |   |--- caviarbf_clpp_rank >  0.00
|   |   |   |   |--- caviarbf_clpp_rank <= 0.00
|   |   |   |   |   |--- baseline_neglogpvalue_rank <= 1.69
|   |   |   |   |   |   |--- smartbaseline_neglogpvalue_rank <= 2.89
|   |   |   |   |   |   |   |--- finemap_clppmod <= 344.00
|   |   |   |   |   |   |   |   |--- class: True
|   |   |   |   |   |   |   |--- finemap_clppmod >  344.00
|   |   |   |   |   |   |   |   |--- finemap_clpp <= 1466.00
|   |   |   |   |   |   |   |   |   |--- class: False
|   |   |   |   |   |   |   |   |--- finemap_clpp >  1466.00
|   |   |   |   |   |   |   |   |   |--- class: True
|   |   |   |   |   |   |--- smartbaseline_neglogpvalue_rank >  2.89
|   |   |   |   |   |   |   |--- class: False
|   |   |   |   |   |--- baseline_neglogpvalue_rank >  1.69
|   |   |   |   |   |   |--- caviarbf_clpp_rank <= 0.00
|   |   |   |   |   |   |   |--- smrheidiadjusted_neglogpvalue <= 1767.00
|   |   |   |   |   |   |   |   |--- class: False
|   |   |   |   |   |   |   |--- smrheidiadjusted_neglogpvalue >  1767.00
|   |   |   |   |   |   |   |   |--- class: True
|   |   |   |   |   |   |--- caviarbf_clpp_rank >  0.00
|   |   |   |   |   |   |   |--- class: True
|   |   |   |   |--- caviarbf_clpp_rank >  0.00
|   |   |   |   |   |--- baseline_neglogpvalue_rank <= 0.96
|   |   |   |   |   |   |--- class: True
|   |   |   |   |   |--- baseline_neglogpvalue_rank >  0.96
|   |   |   |   |   |   |--- class: False
|   |   |--- finemap_clppmod >  416.50
|   |   |   |--- rtc_score <= 407.50
|   |   |   |   |--- smrheidiadjusted_neglogpvalue <= 1751.00
|   |   |   |   |   |--- smartbaseline_neglogpvalue_rank <= 3.37
|   |   |   |   |   |   |--- finemap_clppmod_rank <= 0.16
|   |   |   |   |   |   |   |--- class: False
|   |   |   |   |   |   |--- finemap_clppmod_rank >  0.16
|   |   |   |   |   |   |   |--- rtc_score_rank <= 0.23
|   |   |   |   |   |   |   |   |--- class: True
|   |   |   |   |   |   |   |--- rtc_score_rank >  0.23
|   |   |   |   |   |   |   |   |--- class: False
|   |   |   |   |   |--- smartbaseline_neglogpvalue_rank >  3.37
|   |   |   |   |   |   |--- smartbaseline_neglogpvalue_rank <= 3.58
|   |   |   |   |   |   |   |--- class: True
|   |   |   |   |   |   |--- smartbaseline_neglogpvalue_rank >  3.58
|   |   |   |   |   |   |   |--- class: False
|   |   |   |   |--- smrheidiadjusted_neglogpvalue >  1751.00
|   |   |   |   |   |--- smr_neglogpvalue_rank <= 0.10
|   |   |   |   |   |   |--- class: False
|   |   |   |   |   |--- smr_neglogpvalue_rank >  0.10
|   |   |   |   |   |   |--- finemap_clppmod <= 478.50
|   |   |   |   |   |   |   |--- class: False
|   |   |   |   |   |   |--- finemap_clppmod >  478.50
|   |   |   |   |   |   |   |--- class: True
|   |   |   |--- rtc_score >  407.50
|   |   |   |   |--- class: True
|   |--- smartbaseline_neglogpvalue_rank >  3.65
|   |   |--- finemap_clppmod <= 233.50
|   |   |   |--- class: True
|   |   |--- finemap_clppmod >  233.50
|   |   |   |--- finemap_clppmod_rank <= 0.70
|   |   |   |   |--- finemap_clppmod <= 881.00
|   |   |   |   |   |--- coloc_h4_rank <= 0.59
|   |   |   |   |   |   |--- gsmr_neglogpvalue_rank <= 0.30
|   |   |   |   |   |   |   |--- colocalization_status <= 2135.00
|   |   |   |   |   |   |   |   |--- class: False
|   |   |   |   |   |   |   |--- colocalization_status >  2135.00
|   |   |   |   |   |   |   |   |--- class: True
|   |   |   |   |   |   |--- gsmr_neglogpvalue_rank >  0.30
|   |   |   |   |   |   |   |--- class: True
|   |   |   |   |   |--- coloc_h4_rank >  0.59
|   |   |   |   |   |   |--- baseline_neglogpvalue_rank <= 5.19
|   |   |   |   |   |   |   |--- class: False
|   |   |   |   |   |   |--- baseline_neglogpvalue_rank >  5.19
|   |   |   |   |   |   |   |--- class: True
|   |   |   |   |--- finemap_clppmod >  881.00
|   |   |   |   |   |--- gsmr_neglogpvalue <= 981.00
|   |   |   |   |   |   |--- class: True
|   |   |   |   |   |--- gsmr_neglogpvalue >  981.00
|   |   |   |   |   |   |--- class: False
|   |   |   |--- finemap_clppmod_rank >  0.70
|   |   |   |   |--- caviarbf_clpp_rank <= 0.00
|   |   |   |   |   |--- class: False
|   |   |   |   |--- caviarbf_clpp_rank >  0.00
|   |   |   |   |   |--- finemap_clppmod_rank <= 0.89
|   |   |   |   |   |   |--- class: True
|   |   |   |   |   |--- finemap_clppmod_rank >  0.89
|   |   |   |   |   |   |--- class: False
|--- rtc_score >  416.50
|   |--- finemap_clpp <= 304.50
|   |   |--- coloc_h4_rank <= 0.01
|   |   |   |--- smartbaseline_neglogpvalue <= 960.00
|   |   |   |   |--- class: True
|   |   |   |--- smartbaseline_neglogpvalue >  960.00
|   |   |   |   |--- class: False
|   |   |--- coloc_h4_rank >  0.01
|   |   |   |--- smartbaseline_neglogpvalue <= 3730.00
|   |   |   |   |--- rtc_score_rank <= 0.98
|   |   |   |   |   |--- colocalization_status <= 3101.50
|   |   |   |   |   |   |--- finemap_clpp <= 227.00
|   |   |   |   |   |   |   |--- class: False
|   |   |   |   |   |   |--- finemap_clpp >  227.00
|   |   |   |   |   |   |   |--- colocalization_status <= 380.00
|   |   |   |   |   |   |   |   |--- class: False
|   |   |   |   |   |   |   |--- colocalization_status >  380.00
|   |   |   |   |   |   |   |   |--- class: True
|   |   |   |   |   |--- colocalization_status >  3101.50
|   |   |   |   |   |   |--- caviarbf_clpp <= 874.50
|   |   |   |   |   |   |   |--- class: True
|   |   |   |   |   |   |--- caviarbf_clpp >  874.50
|   |   |   |   |   |   |   |--- class: False
|   |   |   |   |--- rtc_score_rank >  0.98
|   |   |   |   |   |--- class: True
|   |   |   |--- smartbaseline_neglogpvalue >  3730.00
|   |   |   |   |--- class: False
|   |--- finemap_clpp >  304.50
|   |   |--- rtc_score <= 1341.50
|   |   |   |--- finemap_clpp_rank <= 0.00
|   |   |   |   |--- finemap_clppmod <= 3817.50
|   |   |   |   |   |--- smr_neglogpvalue <= 544.50
|   |   |   |   |   |   |--- caviarbf_clpp <= 849.50
|   |   |   |   |   |   |   |--- class: False
|   |   |   |   |   |   |--- caviarbf_clpp >  849.50
|   |   |   |   |   |   |   |--- gsmr_neglogpvalue_rank <= 0.31
|   |   |   |   |   |   |   |   |--- class: True
|   |   |   |   |   |   |   |--- gsmr_neglogpvalue_rank >  0.31
|   |   |   |   |   |   |   |   |--- baseline_neglogpvalue <= 1316.00
|   |   |   |   |   |   |   |   |   |--- caviarbf_clpp_rank <= 0.00
|   |   |   |   |   |   |   |   |   |   |--- class: False
|   |   |   |   |   |   |   |   |   |--- caviarbf_clpp_rank >  0.00
|   |   |   |   |   |   |   |   |   |   |--- class: True
|   |   |   |   |   |   |   |   |--- baseline_neglogpvalue >  1316.00
|   |   |   |   |   |   |   |   |   |--- smartbaseline_neglogpvalue <= 1244.00
|   |   |   |   |   |   |   |   |   |   |--- class: True
|   |   |   |   |   |   |   |   |   |--- smartbaseline_neglogpvalue >  1244.00
|   |   |   |   |   |   |   |   |   |   |--- caviarbf_clpp <= 2218.50
|   |   |   |   |   |   |   |   |   |   |   |--- class: True
|   |   |   |   |   |   |   |   |   |   |--- caviarbf_clpp >  2218.50
|   |   |   |   |   |   |   |   |   |   |   |--- class: False
|   |   |   |   |   |--- smr_neglogpvalue >  544.50
|   |   |   |   |   |   |--- rtc_score <= 458.50
|   |   |   |   |   |   |   |--- baseline_neglogpvalue <= 1995.00
|   |   |   |   |   |   |   |   |--- class: True
|   |   |   |   |   |   |   |--- baseline_neglogpvalue >  1995.00
|   |   |   |   |   |   |   |   |--- class: False
|   |   |   |   |   |   |--- rtc_score >  458.50
|   |   |   |   |   |   |   |--- finemap_clppmod <= 3812.75
|   |   |   |   |   |   |   |   |--- smr_neglogpvalue_rank <= 0.64
|   |   |   |   |   |   |   |   |   |--- caviarbf_clpp <= 3693.50
|   |   |   |   |   |   |   |   |   |   |--- smr_neglogpvalue <= 2163.00
|   |   |   |   |   |   |   |   |   |   |   |--- truncated branch of depth 13
|   |   |   |   |   |   |   |   |   |   |--- smr_neglogpvalue >  2163.00
|   |   |   |   |   |   |   |   |   |   |   |--- truncated branch of depth 6
|   |   |   |   |   |   |   |   |   |--- caviarbf_clpp >  3693.50
|   |   |   |   |   |   |   |   |   |   |--- gsmr_neglogpvalue_rank <= 1.10
|   |   |   |   |   |   |   |   |   |   |   |--- truncated branch of depth 6
|   |   |   |   |   |   |   |   |   |   |--- gsmr_neglogpvalue_rank >  1.10
|   |   |   |   |   |   |   |   |   |   |   |--- class: True
|   |   |   |   |   |   |   |   |--- smr_neglogpvalue_rank >  0.64
|   |   |   |   |   |   |   |   |   |--- gsmr_neglogpvalue <= 791.50
|   |   |   |   |   |   |   |   |   |   |--- gsmr_neglogpvalue_rank <= 4.45
|   |   |   |   |   |   |   |   |   |   |   |--- truncated branch of depth 12
|   |   |   |   |   |   |   |   |   |   |--- gsmr_neglogpvalue_rank >  4.45
|   |   |   |   |   |   |   |   |   |   |   |--- class: True
|   |   |   |   |   |   |   |   |   |--- gsmr_neglogpvalue >  791.50
|   |   |   |   |   |   |   |   |   |   |--- finemap_clpp_rank <= 0.00
|   |   |   |   |   |   |   |   |   |   |   |--- truncated branch of depth 3
|   |   |   |   |   |   |   |   |   |   |--- finemap_clpp_rank >  0.00
|   |   |   |   |   |   |   |   |   |   |   |--- truncated branch of depth 5
|   |   |   |   |   |   |   |--- finemap_clppmod >  3812.75
|   |   |   |   |   |   |   |   |--- class: True
|   |   |   |   |--- finemap_clppmod >  3817.50
|   |   |   |   |   |--- class: False
|   |   |   |--- finemap_clpp_rank >  0.00
|   |   |   |   |--- smr_neglogpvalue_rank <= 0.65
|   |   |   |   |   |--- smrheidiadjusted_neglogpvalue_rank <= 0.05
|   |   |   |   |   |   |--- class: False
|   |   |   |   |   |--- smrheidiadjusted_neglogpvalue_rank >  0.05
|   |   |   |   |   |   |--- baseline_neglogpvalue <= 386.00
|   |   |   |   |   |   |   |--- finemap_clppmod_rank <= 0.03
|   |   |   |   |   |   |   |   |--- class: True
|   |   |   |   |   |   |   |--- finemap_clppmod_rank >  0.03
|   |   |   |   |   |   |   |   |--- class: False
|   |   |   |   |   |   |--- baseline_neglogpvalue >  386.00
|   |   |   |   |   |   |   |--- caviarbf_clpp_rank <= 0.00
|   |   |   |   |   |   |   |   |--- class: False
|   |   |   |   |   |   |   |--- caviarbf_clpp_rank >  0.00
|   |   |   |   |   |   |   |   |--- gsmr_neglogpvalue_rank <= 0.09
|   |   |   |   |   |   |   |   |   |--- smrheidiadjusted_neglogpvalue <= 3519.00
|   |   |   |   |   |   |   |   |   |   |--- colocalization_status <= 3365.25
|   |   |   |   |   |   |   |   |   |   |   |--- class: False
|   |   |   |   |   |   |   |   |   |   |--- colocalization_status >  3365.25
|   |   |   |   |   |   |   |   |   |   |   |--- class: True
|   |   |   |   |   |   |   |   |   |--- smrheidiadjusted_neglogpvalue >  3519.00
|   |   |   |   |   |   |   |   |   |   |--- class: False
|   |   |   |   |   |   |   |   |--- gsmr_neglogpvalue_rank >  0.09
|   |   |   |   |   |   |   |   |   |--- class: True
|   |   |   |   |--- smr_neglogpvalue_rank >  0.65
|   |   |   |   |   |--- rtc_score <= 449.00
|   |   |   |   |   |   |--- class: False
|   |   |   |   |   |--- rtc_score >  449.00
|   |   |   |   |   |   |--- smr_neglogpvalue <= 461.00
|   |   |   |   |   |   |   |--- smartbaseline_neglogpvalue <= 328.00
|   |   |   |   |   |   |   |   |--- class: False
|   |   |   |   |   |   |   |--- smartbaseline_neglogpvalue >  328.00
|   |   |   |   |   |   |   |   |--- class: True
|   |   |   |   |   |   |--- smr_neglogpvalue >  461.00
|   |   |   |   |   |   |   |--- gsmr_neglogpvalue_rank <= 0.13
|   |   |   |   |   |   |   |   |--- finemap_clppmod <= 470.50
|   |   |   |   |   |   |   |   |   |--- class: False
|   |   |   |   |   |   |   |   |--- finemap_clppmod >  470.50
|   |   |   |   |   |   |   |   |   |--- class: True
|   |   |   |   |   |   |   |--- gsmr_neglogpvalue_rank >  0.13
|   |   |   |   |   |   |   |   |--- caviarbf_clpp <= 274.00
|   |   |   |   |   |   |   |   |   |--- class: True
|   |   |   |   |   |   |   |   |--- caviarbf_clpp >  274.00
|   |   |   |   |   |   |   |   |   |--- finemap_clppmod_rank <= 0.10
|   |   |   |   |   |   |   |   |   |   |--- finemap_clpp_rank <= 0.00
|   |   |   |   |   |   |   |   |   |   |   |--- class: False
|   |   |   |   |   |   |   |   |   |   |--- finemap_clpp_rank >  0.00
|   |   |   |   |   |   |   |   |   |   |   |--- truncated branch of depth 2
|   |   |   |   |   |   |   |   |   |--- finemap_clppmod_rank >  0.10
|   |   |   |   |   |   |   |   |   |   |--- class: False
|   |   |--- rtc_score >  1341.50
|   |   |   |--- finemap_clppmod <= 325.00
|   |   |   |   |--- gsmr_neglogpvalue_rank <= 0.78
|   |   |   |   |   |--- smartbaseline_neglogpvalue_rank <= 1.06
|   |   |   |   |   |   |--- class: True
|   |   |   |   |   |--- smartbaseline_neglogpvalue_rank >  1.06
|   |   |   |   |   |   |--- class: False
|   |   |   |   |--- gsmr_neglogpvalue_rank >  0.78
|   |   |   |   |   |--- class: True
|   |   |   |--- finemap_clppmod >  325.00
|   |   |   |   |--- rtc_score <= 1773.00
|   |   |   |   |   |--- rtc_score <= 1743.50
|   |   |   |   |   |   |--- rtc_score_rank <= 0.68
|   |   |   |   |   |   |   |--- smr_neglogpvalue_rank <= 0.00
|   |   |   |   |   |   |   |   |--- class: True
|   |   |   |   |   |   |   |--- smr_neglogpvalue_rank >  0.00
|   |   |   |   |   |   |   |   |--- colocalization_status <= 2933.00
|   |   |   |   |   |   |   |   |   |--- smartbaseline_neglogpvalue_rank <= 0.86
|   |   |   |   |   |   |   |   |   |   |--- class: False
|   |   |   |   |   |   |   |   |   |--- smartbaseline_neglogpvalue_rank >  0.86
|   |   |   |   |   |   |   |   |   |   |--- smr_neglogpvalue <= 2584.50
|   |   |   |   |   |   |   |   |   |   |   |--- truncated branch of depth 10
|   |   |   |   |   |   |   |   |   |   |--- smr_neglogpvalue >  2584.50
|   |   |   |   |   |   |   |   |   |   |   |--- class: True
|   |   |   |   |   |   |   |   |--- colocalization_status >  2933.00
|   |   |   |   |   |   |   |   |   |--- colocalization_status <= 2978.00
|   |   |   |   |   |   |   |   |   |   |--- class: True
|   |   |   |   |   |   |   |   |   |--- colocalization_status >  2978.00
|   |   |   |   |   |   |   |   |   |   |--- caviarbf_clpp_rank <= 0.00
|   |   |   |   |   |   |   |   |   |   |   |--- truncated branch of depth 5
|   |   |   |   |   |   |   |   |   |   |--- caviarbf_clpp_rank >  0.00
|   |   |   |   |   |   |   |   |   |   |   |--- truncated branch of depth 2
|   |   |   |   |   |   |--- rtc_score_rank >  0.68
|   |   |   |   |   |   |   |--- caviarbf_clpp <= 2471.00
|   |   |   |   |   |   |   |   |--- smrheidiadjusted_neglogpvalue <= 3420.00
|   |   |   |   |   |   |   |   |   |--- finemap_clpp <= 478.50
|   |   |   |   |   |   |   |   |   |   |--- class: False
|   |   |   |   |   |   |   |   |   |--- finemap_clpp >  478.50
|   |   |   |   |   |   |   |   |   |   |--- gsmr_neglogpvalue <= 1982.00
|   |   |   |   |   |   |   |   |   |   |   |--- class: True
|   |   |   |   |   |   |   |   |   |   |--- gsmr_neglogpvalue >  1982.00
|   |   |   |   |   |   |   |   |   |   |   |--- class: False
|   |   |   |   |   |   |   |   |--- smrheidiadjusted_neglogpvalue >  3420.00
|   |   |   |   |   |   |   |   |   |--- rtc_score_rank <= 0.84
|   |   |   |   |   |   |   |   |   |   |--- class: False
|   |   |   |   |   |   |   |   |   |--- rtc_score_rank >  0.84
|   |   |   |   |   |   |   |   |   |   |--- class: True
|   |   |   |   |   |   |   |--- caviarbf_clpp >  2471.00
|   |   |   |   |   |   |   |   |--- class: True
|   |   |   |   |   |--- rtc_score >  1743.50
|   |   |   |   |   |   |--- baseline_neglogpvalue <= 2246.00
|   |   |   |   |   |   |   |--- baseline_neglogpvalue_rank <= 1.99
|   |   |   |   |   |   |   |   |--- class: True
|   |   |   |   |   |   |   |--- baseline_neglogpvalue_rank >  1.99
|   |   |   |   |   |   |   |   |--- class: False
|   |   |   |   |   |   |--- baseline_neglogpvalue >  2246.00
|   |   |   |   |   |   |   |--- coloc_h4_rank <= 0.02
|   |   |   |   |   |   |   |   |--- class: True
|   |   |   |   |   |   |   |--- coloc_h4_rank >  0.02
|   |   |   |   |   |   |   |   |--- rtc_score <= 1747.00
|   |   |   |   |   |   |   |   |   |--- class: True
|   |   |   |   |   |   |   |   |--- rtc_score >  1747.00
|   |   |   |   |   |   |   |   |   |--- smrheidiadjusted_neglogpvalue <= 3299.00
|   |   |   |   |   |   |   |   |   |   |--- class: False
|   |   |   |   |   |   |   |   |   |--- smrheidiadjusted_neglogpvalue >  3299.00
|   |   |   |   |   |   |   |   |   |   |--- smrheidiadjusted_neglogpvalue_rank <= 0.07
|   |   |   |   |   |   |   |   |   |   |   |--- class: False
|   |   |   |   |   |   |   |   |   |   |--- smrheidiadjusted_neglogpvalue_rank >  0.07
|   |   |   |   |   |   |   |   |   |   |   |--- class: True
|   |   |   |   |--- rtc_score >  1773.00
|   |   |   |   |   |--- smartbaseline_neglogpvalue <= 3914.00
|   |   |   |   |   |   |--- finemap_clpp_rank <= 0.00
|   |   |   |   |   |   |   |--- coloc_h4_rank <= 0.02
|   |   |   |   |   |   |   |   |--- gsmr_neglogpvalue <= 835.00
|   |   |   |   |   |   |   |   |   |--- gsmr_neglogpvalue <= 794.50
|   |   |   |   |   |   |   |   |   |   |--- class: False
|   |   |   |   |   |   |   |   |   |--- gsmr_neglogpvalue >  794.50
|   |   |   |   |   |   |   |   |   |   |--- class: True
|   |   |   |   |   |   |   |   |--- gsmr_neglogpvalue >  835.00
|   |   |   |   |   |   |   |   |   |--- finemap_clppmod_rank <= 0.05
|   |   |   |   |   |   |   |   |   |   |--- class: False
|   |   |   |   |   |   |   |   |   |--- finemap_clppmod_rank >  0.05
|   |   |   |   |   |   |   |   |   |   |--- finemap_clppmod_rank <= 0.05
|   |   |   |   |   |   |   |   |   |   |   |--- class: True
|   |   |   |   |   |   |   |   |   |   |--- finemap_clppmod_rank >  0.05
|   |   |   |   |   |   |   |   |   |   |   |--- class: False
|   |   |   |   |   |   |   |--- coloc_h4_rank >  0.02
|   |   |   |   |   |   |   |   |--- coloc_h4_rank <= 0.02
|   |   |   |   |   |   |   |   |   |--- class: True
|   |   |   |   |   |   |   |   |--- coloc_h4_rank >  0.02
|   |   |   |   |   |   |   |   |   |--- gsmr_neglogpvalue_rank <= 0.01
|   |   |   |   |   |   |   |   |   |   |--- smrheidiadjusted_neglogpvalue_rank <= 0.22
|   |   |   |   |   |   |   |   |   |   |   |--- class: False
|   |   |   |   |   |   |   |   |   |   |--- smrheidiadjusted_neglogpvalue_rank >  0.22
|   |   |   |   |   |   |   |   |   |   |   |--- class: True
|   |   |   |   |   |   |   |   |   |--- gsmr_neglogpvalue_rank >  0.01
|   |   |   |   |   |   |   |   |   |   |--- class: False
|   |   |   |   |   |   |--- finemap_clpp_rank >  0.00
|   |   |   |   |   |   |   |--- finemap_clppmod <= 2692.75
|   |   |   |   |   |   |   |   |--- finemap_clppmod <= 2652.50
|   |   |   |   |   |   |   |   |   |--- smr_neglogpvalue <= 879.00
|   |   |   |   |   |   |   |   |   |   |--- smartbaseline_neglogpvalue <= 497.50
|   |   |   |   |   |   |   |   |   |   |   |--- truncated branch of depth 5
|   |   |   |   |   |   |   |   |   |   |--- smartbaseline_neglogpvalue >  497.50
|   |   |   |   |   |   |   |   |   |   |   |--- class: True
|   |   |   |   |   |   |   |   |   |--- smr_neglogpvalue >  879.00
|   |   |   |   |   |   |   |   |   |   |--- colocalization_status <= 3104.00
|   |   |   |   |   |   |   |   |   |   |   |--- truncated branch of depth 15
|   |   |   |   |   |   |   |   |   |   |--- colocalization_status >  3104.00
|   |   |   |   |   |   |   |   |   |   |   |--- truncated branch of depth 8
|   |   |   |   |   |   |   |   |--- finemap_clppmod >  2652.50
|   |   |   |   |   |   |   |   |   |--- colocalization_status <= 3398.75
|   |   |   |   |   |   |   |   |   |   |--- finemap_clppmod <= 2654.50
|   |   |   |   |   |   |   |   |   |   |   |--- class: True
|   |   |   |   |   |   |   |   |   |   |--- finemap_clppmod >  2654.50
|   |   |   |   |   |   |   |   |   |   |   |--- class: False
|   |   |   |   |   |   |   |   |   |--- colocalization_status >  3398.75
|   |   |   |   |   |   |   |   |   |   |--- class: True
|   |   |   |   |   |   |   |--- finemap_clppmod >  2692.75
|   |   |   |   |   |   |   |   |--- class: True
|   |   |   |   |   |--- smartbaseline_neglogpvalue >  3914.00
|   |   |   |   |   |   |--- rtc_score_rank <= 0.51
|   |   |   |   |   |   |   |--- finemap_clpp_rank <= 0.00
|   |   |   |   |   |   |   |   |--- caviarbf_clpp_rank <= 0.00
|   |   |   |   |   |   |   |   |   |--- class: False
|   |   |   |   |   |   |   |   |--- caviarbf_clpp_rank >  0.00
|   |   |   |   |   |   |   |   |   |--- smr_neglogpvalue_rank <= 0.54
|   |   |   |   |   |   |   |   |   |   |--- class: True
|   |   |   |   |   |   |   |   |   |--- smr_neglogpvalue_rank >  0.54
|   |   |   |   |   |   |   |   |   |   |--- class: False
|   |   |   |   |   |   |   |--- finemap_clpp_rank >  0.00
|   |   |   |   |   |   |   |   |--- smr_neglogpvalue_rank <= 0.49
|   |   |   |   |   |   |   |   |   |--- class: False
|   |   |   |   |   |   |   |   |--- smr_neglogpvalue_rank >  0.49
|   |   |   |   |   |   |   |   |   |--- class: True
|   |   |   |   |   |   |--- rtc_score_rank >  0.51
|   |   |   |   |   |   |   |--- class: True
